2.888546115331375175e-02 -1.963321585199041212e-03 4.075975262666538257e-02 -3.691295507448998786e-02 6.813324748759462361e-03 -3.944422851408447422e-02 -7.929744819289220870e-02 -1.954738278218535741e-01 -2.665118947638991376e-01 4.707218718358188725e-01 -1.937999052505853526e-01 3.191579731048889701e-01 -1.420039340923369246e-02 6.151518543966418701e-02 2.561799379611078009e-02 -2.308260111959967859e-02 1.298055765591673572e-01 -2.804663222340174622e-01 -3.375135680271014460e-02 -5.618917239913508860e-02 2.670722105871711424e-02 2.473098110800516988e-02 1.314978849850570730e-01 2.722723773928408253e-01 -1.319251514455811458e-01 3.305091874493660230e-03 -8.127296399881730471e-01 1.168327922567689164e-03 9.730701351406849386e-02 2.151689333626228239e-03 5.424003573426132430e-02 -1.048276861397591103e-01 3.131408024746477614e-01 6.831039124158577724e-01 4.656904185748002578e-01 -5.143906583954693801e-01 8.481262653247179095e-02 1.490025619193161566e-01 2.048038127569687950e-01 -7.035966373533323326e-01 4.240966011473577546e-01 4.799735489134078770e-01
-1.500663446606393704e-02 7.674283729685287513e-03 4.301817217847386798e-02 1.190007496761227856e-02 4.796149355590523591e-03 -3.766819828936299186e-02 3.833359644050287618e-01 -2.541684165135680296e-01 1.324404616492132480e-01 2.956347935841829866e-01 4.282307941698580422e-01 5.656585538249057077e-01 2.046997223399742508e-02 7.164100821376860606e-02 -2.593944159388592106e-03 -6.789396875998553182e-02 1.549178862184864280e-01 -2.840543028705835304e-01 -3.221263717580296476e-02 -5.931539572406484273e-02 3.135807756191390542e-04 6.493354290061337242e-02 1.562377540072209248e-01 2.764478305469899033e-01 -1.225260284448370929e-01 8.608226685139904952e-03 8.278179763510801203e-01 -4.022668379105249548e-04 -1.192278907211758859e-01 -1.140364580708071087e-03 5.485123441927046428e-02 -1.180779203086334828e-01 2.298202381297078933e-01 6.887938514120057754e-01 4.673444767100182751e-01 -5.128387660032112105e-01 1.271163573742196684e-01 1.163497254169402889e-01 1.875322865539640615e-01 -6.785327410087712563e-01 4.817371795857151584e-01 5.196703294902118575e-01
-2.386224243456302324e-02 -5.043635155087121402e-03 4.135954472541029242e-02 1.407909700630821832e-02 2.963663533808818390e-03 -3.688201132537595461e-02 4.218875916053061448e-01 -5.941112190950209593e-02 6.491790041923932442e-02 4.043688339511822827e-01 3.652389398331362669e-01 -7.987275608694360818e-02 -1.749743790690671402e-02 6.470476982280344569e-02 -2.093186833928894607e-03 -3.513699721630352685e-02 1.511120833482753334e-01 -3.307389878620824453e-01 1.723463302840469447e-02 -7.307907054651947842e-02 -3.275188846543665953e-03 3.494830907799162389e-02 1.516559894210202653e-01 3.351689431065125735e-01 -1.248151227702576777e-01 -7.501451526054047671e-03 8.332816381415847351e-01 3.260320422921780641e-03 -1.007102996071393280e-01 -6.554493576243188360e-03 1.203371755058861049e-02 -2.607267692321831309e-01 -1.143442704130203658e-01 -5.940602576952699332e-01 -3.983329090283780349e-01 7.073351357490696989e-01 -4.053250522011657420e-02 3.364341686552979049e-01 -1.667910136186224468e-01 5.844617445532964695e-01 -4.255498295775284601e-01 -6.513782597693862364e-01
-3.244945612542586566e-02 -9.965638257463992899e-06 4.439419413254354352e-02 1.486824354403492102e-02 9.920570293378486572e-05 -4.073102482280661907e-02 1.239446609101186203e+00 7.373251508011030965e-04 7.390563817005281200e-01 -6.074660648358579020e-04 9.817459111637878433e-01 6.321989176126566700e-05 3.383428319060400452e-02 7.469866891275682430e-02 2.532150402526642165e-03 -4.310988754189925415e-02 1.443202339799170841e-01 -3.380212714029645071e-01 3.210645246813285253e-02 -7.431979710716749010e-02 2.737693960398890434e-03 4.311490257330040377e-02 1.443339008643815813e-01 3.376145961041415178e-01 -1.243429303639064371e-01 2.384946739915165797e-04 8.343621174866351353e-01 -7.951021072040094278e-05 -1.054809838971999814e-01 1.848734785931733962e-04 2.143100533361122495e-02 -5.630339135380769966e-02 -1.964179904267362997e-01 -5.398934951731497733e-01 -9.773255802843329454e-02 7.834218154551557747e-03 2.530798952997657947e-02 5.801563060629624791e-02 -1.959005708070486740e-01 5.405565772750058340e-01 -9.761998790923599734e-02 -7.887055125442668860e-03
-9.491426368017769760e-03 -4.196147600676898418e-04 4.371575465604980726e-02 1.882912801004311271e-02 -1.219283458784525820e-03 -4.059399249197681581e-02 1.337444948515297050e+00 -1.875735828722283191e-03 6.484906768794138632e-01 3.091703197822473145e-03 9.568506434559596041e-01 -1.665335895599878322e-03 2.766603431707719690e-02 7.360636242712054189e-02 6.029201341236153575e-03 -4.333186387787725524e-02 1.442038622773893497e-01 -3.418956585076393662e-01 4.688445377518259127e-02 -7.804171201046322670e-02 4.429980113954983499e-03 4.364681248133601282e-02 1.440360201147479202e-01 3.431831789982033309e-01 -1.150485398792745473e-01 -3.421855998413972279e-03 8.047230089821032495e-01 9.645051078980827709e-04 -1.019822302531916275e-01 -2.083124612255003207e-03 4.436036165405299325e-02 -3.841233532174779391e-02 -2.334345786901026176e-01 -5.390481886384950183e-01 -9.392307586938256070e-02 2.210700378296666033e-03 7.141870531884633375e-03 2.771865489151650874e-02 -2.389690016462964472e-01 5.358805632790457629e-01 -9.696066339359762920e-02 -6.810624871570511440e-03
7.545962417099927322e-03 -6.777398155929619927e-04 4.601251893940537518e-02 2.875475095069444584e-02 -2.311358530694610121e-03 -4.012451955607940907e-02 1.399939876516820059e+00 -1.362845396405197931e-02 5.211648404170186044e-01 7.330589540876514786e-03 9.453597636403396898e-01 -1.786972744114278394e-03 1.954460930290510823e-02 7.181499525196527456e-02 1.102765393331692906e-02 -4.335889409945343359e-02 1.437858935948066741e-01 -3.449951182437698272e-01 6.105488609189530652e-02 -8.140425666915669656e-02 9.026554447851824203e-03 4.404665970198820557e-02 1.435094801249550689e-01 3.482132437944624459e-01 -1.087003026624508983e-01 -7.604678933796336394e-03 7.785784693874160389e-01 2.149463542436396476e-03 -1.002457287756877286e-01 -4.724425375425159689e-03 6.959845584281511288e-02 -2.412381434964800536e-02 -2.933388099758623135e-01 -5.350619376016240158e-01 -9.764646453797536096e-02 1.901765156139583173e-03 -1.073589545937511658e-02 -1.198897074521656017e-02 -3.207262504186717544e-01 5.294690730720802430e-01 -1.023893007384577142e-01 -5.918393969153150184e-03
4.989117047038963554e-02 2.623633534245228133e-02 4.203393847855640963e-02 -1.026138710036801974e-02 3.721025024535429444e-03 -4.267123516492937058e-02 1.553942241296132565e+00 -6.554322876973853740e-01 4.233728548558395310e-01 2.259493861773390344e-01 5.774344844274327260e-01 5.329722154816897151e-01 3.368645578435264243e-01 1.767526522791391941e-01 9.356779389988593987e-02 2.150820017285834038e-02 9.878603347839207127e-02 -3.602071789433486382e-01 -9.656662112541178344e-02 -4.216068349922817704e-02 4.656092532063960121e-02 6.152462404571935016e-04 1.188464861497707109e-01 3.253018159833990786e-01 -1.057551504775653822e-01 9.683806639479608513e-02 -7.851819691753132435e-01 1.929236323356101415e-02 1.039013779639076374e-01 3.500232874202542643e-02 -1.172735314052251454e-01 -3.051061343719103092e-01 -2.853132598292391631e-01 -5.132445452854935697e-01 -6.665680121152840754e-02 -1.692474504165818877e-02 5.806249571301185242e-01 -5.482693427815822362e-01 -2.741156544672131989e-01 5.803820871943770054e-01 -1.794103449761016156e-01 -3.412932255671029258e-02
-8.625302988636275592e-02 8.679505657503691152e-04 5.108342650785820116e-02 7.489236308387241525e-01 5.316099483629868616e-02 7.776329854694438715e-02 1.766529963875938636e+00 -1.622168782568802037e+00 -3.145214751976462830e-01 1.937731546957298656e-01 4.848109873488048449e-01 5.384324781296941920e-01 1.596747663095889058e-01 1.198782426801920792e-01 2.440807838539592045e-01 -4.780877909875885790e-01 4.401229472402417020e-01 -7.004776170645113376e-02 -1.098497504221799259e-01 -3.601074482370854313e-02 7.832968145545775307e-02 2.877353998992551384e-02 1.229557168060660538e-01 3.519602718876741476e-01 -1.639751139671241642e-01 1.697419364193336264e-02 9.103595384501759202e-01 -2.549397652472654846e-02 -1.449257768136160140e-01 4.245645477986866728e-02 -1.692916439296697773e-01 -6.226287678933661862e-01 -1.967982351846764566e-01 -5.491646749472079980e-01 -4.699864898560724424e-01 7.531069979435188744e-01 7.834430483917423915e-01 -7.443093936158227952e-02 -1.606047144422539041e+00 7.314425757808744599e-01 7.094465543155292764e-02 7.128401422470600490e-01
6.451262569998433838e-02 5.510020233923662580e-02 5.308525570199783966e-02 1.351671312777650569e-01 1.043058917764965315e-01 -3.675810269461662894e-02 1.684431934936109432e+00 -8.548755706876062233e-01 7.907256155284278498e-02 1.776958095386543535e-01 4.528235831573801939e-01 5.327355696926125983e-01 -6.318805700064893394e-01 9.468117010430003588e-02 9.994683170040411513e-01 -5.267049791842443041e-01 3.951389251645824330e-01 1.413497894415139955e-01 1.709963074263546323e-01 -1.346035785319927569e-01 5.169329386735631998e-02 2.627915776603994766e-02 1.291580917950441998e-01 3.182696740230896437e-01 -1.634175848775399065e-01 -7.156888055109987823e-01 3.522977034256024459e-02 5.224827605182003065e-03 -2.651140104744112436e-02 -4.771510177838728627e-03 3.225269277331502954e-02 -6.701721904242215200e-02 -2.666093679982373676e-01 -5.174545217431703037e-01 -1.005644690345556536e-01 1.438859196155340900e-02 3.258655050420125043e-01 -4.531166205111114564e-02 -1.328400208376719016e+00 1.240433370254511170e+00 1.787043018907140679e-01 9.151245071680663701e-02
7.527839120760089209e-01 -7.998214954166082968e-03 -6.898967698313783481e-02 5.296819481332017132e-02 1.079287471094942663e-01 -4.797025899874683696e-02 2.363133685888432201e+00 -1.157808350794813368e+00 1.307661959437542987e-01 -1.448011051747339906e-01 3.712782297444485180e-01 -4.169927799185356720e-01 1.964468370823304055e-01 1.378145813196983704e-01 3.016191467709593566e-01 -4.742950471986527861e-01 4.314009810915527821e-01 1.586667422582698286e-02 -1.237556300989061803e-01 -2.300233979481681318e-02 1.755363288047058490e-02 1.919722855944290887e-02 1.459932292417694955e-01 3.643010604482819215e-01 -9.279316002883702952e-02 6.134626295623426401e-02 -7.398676825045527039e-01 -4.123261814188664866e-03 7.567352584563695472e-02 -9.084874601342000228e-03 6.748507944588454099e-02 -1.463656241078380438e-01 -1.108801983865504021e-01 -5.424185900604657773e-01 7.345682434486149326e-01 -9.170269075816908089e-01 4.891627269018939961e-01 -7.675800778311037131e-02 -1.328800404891394393e+00 1.273540925146297909e+00 1.756251557614813275e-01 1.115156408670035515e-01
7.641148300392965886e-01 -5.356385860295643500e-05 -7.197790176201011858e-02 3.491045510856410211e-02 8.610806290418203390e-02 -4.868692505299285211e-02 2.397606347465004895e+00 -1.178056671749738937e+00 3.068418211188011363e-02 -1.370781640871334972e-01 2.717601870606621839e-01 -3.116942566709781648e-01 2.148119510554303002e-01 1.355169389119938173e-01 2.381351694921750306e-01 -4.716745129224757527e-01 4.325956102358675115e-01 -9.557865371727718509e-03 -1.271943905148526510e-01 -2.217151813653337605e-02 7.620606155950978948e-03 1.634340173112309655e-02 1.465949719771177662e-01 3.661644244385197644e-01 -9.996279873203964272e-02 6.721499477364346886e-02 -7.616576946020057193e-01 -5.185567586983560150e-03 8.268495279376986140e-02 -6.456286446752211063e-03 5.585601641649251548e-02 -1.648957334247531104e-01 -1.294259755240964871e-01 -5.399600885898234726e-01 7.337356583514739183e-01 -9.141818943740311898e-01 4.580844077555094596e-01 -1.171379341077761621e-01 -1.382251009235341277e+00 1.300996407391642906e+00 1.461467016764762539e-01 1.055763606069320543e-01
