-6.920223333503378212e-03 -4.887535904282933746e-02 7.264872599167250880e-03 -2.860731179842244259e-02 -2.029837295644424944e-01 9.619650044221151469e-03 1.285641449834675765e+00 5.084672361802926588e-01 2.774546852103403349e-01 -2.222159357674480806e-01 5.141088191888620873e-01 -1.165788454470243901e-01 2.372343641311133733e-01 1.527034387368204627e-01 9.951400221068394669e-02 -9.790776217157803885e-02 -5.232690472134412518e-01 7.378081139690064738e-01 8.110049297722662920e-02 -1.684502319680389881e-01 5.988802553033191201e-01 2.856790815575250830e-01 6.002486507212317912e-01 -7.997528480617871471e-01 -6.295522957024350663e-02 1.347610190636525096e-01 -3.834258611101586389e-01 2.533050371625806263e-01 7.292953860948654665e-02 6.185079227990798456e-01 1.694157133754792821e-01 -3.794687656660618302e-02 -5.347351321472944008e-01 -8.802216765597867809e-01 1.600597604637620658e-02 5.942911046764253191e-01 1.606822339815765499e-01 2.598457929733478944e-02 2.059297148832118785e-01 3.936003014767712194e-01 -1.548576850416558404e-01 -5.862140282335650543e-01
3.807176261557845831e-02 -1.787771145268828576e-01 1.972370010544632901e-02 -1.901114374275674479e-01 -5.553654195116055625e-01 8.854794063859326714e-02 1.259529912130742169e+00 4.677960229224397137e-01 1.352339850262828103e-01 -2.766631652002519703e-01 2.555489616141120024e-01 -1.278510996228727215e-01 4.536472911931108687e-01 2.501277462190313883e-01 7.746033653193018509e-02 -3.194583056814347122e-02 -2.318588150049537555e-01 9.418844801372509012e-01 -1.875164621581526248e-01 -2.456596226862382271e-01 9.496394851081638722e-01 3.891942166298020256e-01 6.535467496108559038e-01 -8.338585625916168365e-01 -1.565756414880782321e-01 1.922090313460372013e-01 -6.051437742936680575e-01 2.435290353462887247e-01 2.259730911560415278e-01 9.099403135658055142e-01 1.649644535890299191e-01 2.659052703097037132e-02 -7.161083733625760450e-01 -9.666906484809465461e-01 8.055167504544769042e-02 4.128148372095757912e-01 3.161398962424730175e-01 -1.342394685833129819e-01 3.347726596593558757e-01 3.430753594777041227e-01 -1.693474232440539406e-01 -5.466186954890682737e-01
1.504409202390189215e-01 -1.666011107662452029e-01 -1.111642377405162342e-02 -1.252228519788192163e-01 -3.550053954778285004e-01 3.914416971158601877e-02 1.248348724534766641e+00 2.622121430208637083e-01 3.859389456826560483e-02 -1.677552947933551308e-01 1.924919084993755719e-02 -4.695669668713660649e-01 5.762630891462285909e-01 3.285303612208206880e-01 9.668610716709991060e-02 -1.011993171286285353e-01 -1.834048229376130101e-01 9.783801117285380045e-01 2.543178360603433330e-02 -2.090009601363134739e-01 8.316857984913420543e-01 3.637235759397269841e-01 5.417660454848105545e-01 -7.577580979502420711e-01 -1.418968780132579544e-01 3.396971005880057293e-01 -6.334728060925950421e-01 3.242031595116277032e-01 1.978304928534661833e-01 8.068398467989488232e-01 3.486588183672224006e-01 2.912362212120607752e-01 -7.966207604688007038e-01 -1.283378459288032181e+00 4.068643731648529105e-01 8.336205276144145748e-02 3.839006605274323247e-01 -2.462573072099862870e-01 1.479391095953241364e-01 4.454492079018047002e-01 -2.648668670543867787e-01 -5.669117209199793228e-01
2.378229221100306573e-02 -1.437401052887459230e-01 -2.710489246831456703e-03 3.090232133399214640e-02 -1.283161052493606569e-01 1.502878715473287847e-03 1.188484181076208568e+00 -4.364471613122982568e-02 -2.804642807532852777e-01 -2.315658575773076877e-01 1.005256946637668285e-02 -6.414811728361452525e-01 5.530078773149708082e-01 3.621317821778294310e-01 4.147085029436318182e-01 -2.621333590505581790e-01 2.965763535070206625e-01 9.836862903218629439e-01 2.491342060486046728e-01 -2.297184149553941623e-01 7.546579802865792663e-01 3.585887947606736792e-01 4.601985845381972307e-01 -6.965258112259763434e-01 -8.404966803607089032e-02 2.519280304007333604e-01 -4.728003707109156850e-01 2.960814484509587396e-01 1.289168655288847054e-01 6.875438927275117074e-01 4.986845030018288716e-01 4.490458715427326220e-01 -6.844985947472688181e-01 -1.211174011325909294e+00 4.868090173778615304e-01 5.606265572195483909e-02 4.338686480685781666e-01 -2.823651188523508271e-01 -4.296122899827267694e-01 7.515015660846293688e-01 -2.119414034129563640e-01 -5.792556404715820673e-01
