6.333316022935746477e-03 -3.956447582634101644e-03 8.827734576524333757e-03 5.940288146546061909e-03 5.020287007862418195e-03 -8.757391111340537271e-03 1.387631642889111117e+00 -3.432717582031965392e-02 -9.331429259474262050e-01 -2.123444078973451277e-01 -3.255425017105068042e-01 -8.552087849962218546e-03 4.815167766638234759e-01 3.157100160827517321e-01 8.794153771360680993e-01 -3.439951193183230505e-01 2.224630080222251421e-02 1.885614713204487591e-01 4.339654723823930804e-01 -2.737666419341369117e-01 8.221675005615199927e-01 4.142685789081026471e-01 2.663393148052146664e-01 -3.996224045422457904e-01 -9.238885580185467183e-02 -3.003772174040733947e-02 -7.820137107793269093e-01 3.018934480975853374e-01 2.839373425487831115e-01 1.588456291871855608e-01 8.816351590430437923e-01 7.229738593911958500e-01 -9.346983644055637530e-01 -9.910992943324276050e-01 3.332279928625282439e-01 -4.123084467540640285e-01 9.158304978674777219e-01 -7.653881271790118346e-01 -9.093842008601553673e-01 8.885498819222307221e-01 3.275946115433858163e-01 5.377072004771432656e-01
-2.027249529125815797e-02 -3.100805727032042089e-04 -4.589345420524411617e-04 2.047907837113329549e-02 -3.940240403226081341e-04 -3.407094389413921950e-03 1.964055606006656629e-01 -8.949838853325291221e-02 2.921392817578944978e-01 1.855335199091042164e-01 2.056429293574589812e-01 3.303177388588349889e-02 -1.365497292301368626e-01 -5.595230494780382112e-03 -2.516036198646047217e-01 2.139496505761341247e-02 2.511299832836725865e-01 -2.630293648942135243e-01 -1.017023329617652710e-01 -9.841465978521353117e-03 -2.824858689721975735e-01 -2.285357855456196866e-02 2.779521793982825950e-01 2.798035945520682688e-01 -7.117664797218553607e-02 -1.490071698260465004e-02 6.265062695759099354e-01 4.552980459447798084e-02 -2.126693833039725867e-01 -2.792283933692562420e-02 -1.321874449999292829e-02 -1.504219771137262907e-01 1.586064062738073432e-01 -4.969197630389842746e-01 -2.427151903432201441e-01 4.318257300634849583e-01 -3.514895538491862731e-02 1.828816327301708289e-01 8.547081928904691484e-02 4.985238161416918889e-01 -2.606266236729417041e-01 -4.088915163501440353e-01
