7.902418969031951498e-03 3.451410294103855227e-03 4.508001936152576661e-02 5.120002799320073905e-03 4.194541683663945315e-03 -4.691704100341220068e-02 -2.143338494894074520e-01 -2.530086039754165204e-03 -4.965333210004349018e-01 8.222803262273578606e-02 -8.722889965955657465e-02 -8.972566060873747584e-02 1.614054155742921173e-02 6.036644773370127004e-02 2.109851432374673652e-02 -1.461309313468891341e-02 1.182835301856006854e-01 -1.876069155005225531e-01 -5.576174094540659737e-02 -4.282018047934364746e-02 1.648186591488740027e-02 1.553862727604653216e-02 1.187469078247353066e-01 1.766939635133027986e-01 -5.632117318857500499e-02 2.243245601268814560e-02 -4.876693903171764877e-01 -2.776364208112156221e-04 4.635229692878496677e-02 2.394421547674445601e-03 1.702474458613804573e-02 -1.109242417953274495e-01 9.658106562838218723e-02 5.969467904740478614e-01 2.673479339813368827e-01 -4.510759902134321986e-01 2.274279670937763217e-02 9.552414695700940650e-02 9.349687849157006792e-02 -6.032027850707160077e-01 2.411959608005579681e-01 4.175823919934613104e-01
-2.912799852691062841e-02 1.245001773055270586e-02 5.065836265840244906e-02 2.463687088474424830e-02 -2.034193183434636950e-03 -4.666986111378593899e-02 3.230295906022506158e-01 -1.288232798125759759e-03 1.438577006355339916e-01 -1.737490423251478455e-01 4.716231303921417650e-01 2.183891749715207165e-01 3.260303984979424224e-02 7.243163674771460614e-02 -1.378784181435200283e-03 -5.202115147168550474e-02 1.600915499645303997e-01 -2.295151903567664020e-01 -9.844980429830611779e-03 -5.685638463942524479e-02 5.018299688360648367e-04 5.059956640145688717e-02 1.602423554044457299e-01 2.237439933347763754e-01 -1.502974702723158529e-01 1.222165786044262896e-02 9.110597442793793022e-01 -3.464787367009236358e-03 -1.795276284727936600e-01 7.586470392223417262e-04 -4.244765406003070743e-03 -1.021148341942654109e-01 1.289385680446168969e-01 5.389391803049915497e-01 3.135878445424814531e-01 -4.141657973097687684e-01 4.014670558372211012e-02 9.914558104430833130e-02 1.568959701824203246e-01 -4.444224011249796602e-01 3.273007361098060342e-01 3.323929667123196041e-01
-2.923580158166153367e-02 -1.686888421978632695e-03 4.739440530853585715e-02 1.239703779047791714e-02 8.619762480326751027e-04 -4.125876825999466591e-02 5.271094077872101602e-01 5.871553374365203609e-03 1.762027948953460432e-01 6.198407178327795808e-02 5.266008888855222558e-01 -5.441806865060407755e-02 3.438830457880353436e-02 7.886772861259121192e-02 -1.362217403903694807e-02 -4.822374875343065498e-02 1.559608502479728487e-01 -3.075838423561031432e-01 4.664925718383604314e-02 -8.340950547358015610e-02 -2.196930732500983197e-02 4.841346559293844415e-02 1.581612175639365014e-01 3.031074791676712232e-01 -1.361408406190013354e-01 -3.136700418096852790e-03 9.169614886843703294e-01 -1.288023784256580153e-04 -1.979814425329464445e-01 1.382177292828571779e-03 -1.569057209541735790e-02 -2.910496637833955291e-01 -1.209930450763016530e-01 -5.992727855141634086e-01 -3.826149905119061723e-01 6.790867368442734531e-01 -1.075943413520560887e-02 3.160497764452177005e-01 -1.202072143873426924e-01 5.822466159367287730e-01 -3.921293055054934085e-01 -6.659994750758311266e-01
-3.336908859484757905e-02 -1.819238737294798063e-03 5.162341750516410976e-02 1.572587331304112906e-02 -2.424649266031261331e-03 -4.954599691700785347e-02 8.792997968107550966e-01 2.482409848825582743e-02 3.825738329567671681e-01 3.655005229997946442e-02 7.120335606384264882e-01 -7.727929958964147028e-02 4.554054035857695720e-02 1.003947025467021997e-01 3.929882083812192423e-03 -4.158640455163948452e-02 1.596856099117802408e-01 -3.346350785198606848e-01 7.276159989977315501e-02 -9.802101384934526485e-02 2.896305487525160059e-04 4.496827865574658245e-02 1.593301616201083515e-01 3.448192998592305991e-01 -1.402192806222600230e-01 -6.276466176886297786e-03 8.872474006676304148e-01 -1.584221489523410329e-03 -1.471748650220991994e-01 -5.638391339575615432e-03 6.746702856739786314e-02 -4.252817988403612137e-02 -2.315613076095674738e-01 -5.177650367646882135e-01 -9.583892479949970844e-02 2.130617590683298035e-02 1.478186286821402649e-02 2.473242810793107455e-02 -2.394368039502409451e-01 5.088973028472114635e-01 -1.092102145131116642e-01 -1.956535203306275159e-02
-1.226745359696412505e-02 -6.237441794880551390e-04 4.535517553239869909e-02 1.585737206722057091e-02 -1.356055967416660343e-03 -4.223020324819361931e-02 1.333710986351562378e+00 5.550921062263500239e-03 6.406989413082196938e-01 5.193996544117511667e-04 9.572496615611020276e-01 -4.699534366110826554e-03 2.107773743836930530e-02 7.288114304648155017e-02 1.417422198697101433e-02 -4.123714658811929862e-02 1.425870434444808654e-01 -3.431465297779483503e-01 4.001975070970151260e-02 -7.638259244021637639e-02 1.241422007336738000e-02 4.021647769211977863e-02 1.426570723184393819e-01 3.453147024416968192e-01 -1.191709731896900132e-01 -4.136497960116366883e-03 8.138503352302776106e-01 1.064117162453347924e-03 -9.395555397663664376e-02 -4.430637364451518734e-03 4.920851308486438869e-02 -3.707165294435436215e-02 -2.412830156653419378e-01 -5.382612289367610936e-01 -9.712727775674605268e-02 -2.310991219303150379e-03 7.498407301295261645e-03 3.075673439567734244e-02 -2.438247430767417623e-01 5.365143789193335122e-01 -1.020932996698113021e-01 -7.221721759705959122e-03
1.137713416561695300e-02 -8.289227651383085631e-04 4.687511122983196998e-02 1.895770934568316926e-02 -9.578050052621670538e-04 -4.239669917912186614e-02 1.418338408634630676e+00 -1.751552517001724388e-02 5.660955278652730627e-01 4.964751679875895919e-03 9.349868485475388846e-01 -2.597155914394691772e-03 6.618137385020881128e-03 7.230678719010376343e-02 1.229767761048345537e-02 -3.450960068949548293e-02 1.437777524386345263e-01 -3.754400840597962863e-01 4.198018820132166928e-02 -8.074450962885217076e-02 1.406915336413433124e-02 2.943354574116750430e-02 1.429545044445773294e-01 3.951182987779992550e-01 -1.086368887733899363e-01 -5.408293764014278707e-03 7.854799626759623177e-01 2.059854469502010038e-03 -9.062996067888648422e-02 -4.169163222104916959e-03 6.640711581576684563e-02 -2.913858079520796965e-02 -2.716568943115865720e-01 -5.331976421479809325e-01 -9.644736834869729880e-02 9.750982481945507860e-03 -1.878865961004520801e-02 -1.524329944364495419e-02 -2.985013043396975152e-01 5.293851065881199913e-01 -1.041011352693141934e-01 -1.287766729631366867e-02
7.767147409096114563e-02 1.957003881596587613e-02 4.121358645634098927e-02 5.444520822098230378e-02 6.824474916687093932e-03 -3.719418129491865177e-02 1.531094738139907152e+00 -3.781886109656852901e-01 4.389798176380843020e-01 2.583734005385173171e-01 6.215097250265817497e-01 5.274075790835330846e-01 1.313446748777190587e-01 1.000215649836706383e-01 4.035961919522692426e-02 -2.526360363176225268e-02 1.279718593743306154e-01 -3.776227450554137111e-01 1.551506829332391542e-02 -6.155890849872565351e-02 3.286227849766373832e-02 1.861649345934768968e-02 1.310869934760215128e-01 3.822920855241318527e-01 -1.919986270056059027e-02 5.006511458485300020e-02 1.186351221573636733e-01 3.393434982655502835e-03 -1.816432386803694746e-02 -1.131436979637868295e-02 1.630305621832678353e-02 -9.137601904563383282e-02 -3.068856268176650692e-01 -5.234792319285018758e-01 -1.034090826669491342e-01 9.686937104076078983e-03 1.539303903375626725e-01 -1.720175272814173373e-01 -5.471093947107777966e-01 5.431146761755970553e-01 -1.074346668844921721e-01 4.714281599780325432e-02
4.081920899136774056e-02 2.275675983293758142e-02 4.859857162830961280e-02 1.370340791473566300e-01 8.268226940345965725e-02 -3.322917298796843055e-02 1.598449153719052385e+00 -7.918950076181130449e-01 1.179754059294678414e-01 2.677668064761341005e-01 5.131446722596268994e-01 6.104131452113960021e-01 3.015698317955925467e-01 1.621750656810130864e-01 1.592232637617587987e-01 -4.830413854393438289e-01 4.987941629778100960e-01 -1.380966533953194852e-01 -1.899570849624889271e-02 -4.279407342711382539e-02 4.815643911060332044e-02 2.697807619699853568e-02 1.351443963653296554e-01 3.620741441121156368e-01 -1.559658717503328504e-02 7.826735639766721486e-02 2.334172775171747538e-01 -1.007719541630009395e-02 -3.442918848253425507e-02 -7.684467226524765472e-03 -2.646057703163889885e-02 -1.413744873490231924e-01 -3.172859925720329932e-01 -5.022355512523337673e-01 -9.055621581593137348e-02 -1.643396206584802829e-02 5.982840727469870279e-01 -2.988394766446081929e-01 -1.202929979626518042e+00 6.849188322466523982e-01 9.880076614339371177e-02 7.543089392976637386e-01
6.009252640195077849e-02 5.338668268844380671e-02 5.498034803483330818e-02 1.229909302386820447e-01 8.978763173968634659e-02 -4.011342847628942415e-02 1.653026654806618811e+00 -7.393119471127690412e-01 7.815264718960218682e-02 1.542993058298496034e-01 4.366074757905524240e-01 5.096672186442495756e-01 -6.445897206328278228e-01 9.337392524598513155e-02 1.005396337746487401e+00 -5.259645203651811540e-01 3.975537551353339749e-01 1.418366652097254321e-01 2.624952489905759689e-01 -1.664184142746193695e-01 4.384628985110529398e-02 2.539943689954975853e-02 1.281285759577572292e-01 3.135567805597741509e-01 -1.706762595417798400e-01 -7.380412637724755864e-01 2.809842269288011923e-02 5.409528951589985014e-03 -2.430375583387406682e-02 4.461278368657523724e-03 1.356725011437761863e-01 5.307647992742111492e-02 -2.750973859873001581e-01 -5.263483880559468586e-01 -1.037940735232818629e-01 6.538481511295878533e-03 2.916082021727025575e-01 -2.866158184003457163e-02 -1.288935173350127750e+00 1.231699003520450697e+00 1.802859027396534197e-01 1.092742629984116698e-01
7.459756511314390437e-01 1.914606678424205302e-02 -6.671178288231846554e-02 -3.408356526179280588e-02 2.951613610859430553e-02 -5.610716167217300043e-02 2.250130249409195038e+00 -8.881128696768316733e-01 2.262377592211488320e-01 -1.773315962637643239e-01 3.696255737134551689e-01 -4.408081494267793721e-01 1.384041480305079341e-01 1.516627984417730779e-01 4.227555767161120803e-01 -4.994793348099271779e-01 4.103224710431257471e-01 -5.387390003584398984e-03 -6.731103787449253806e-02 -5.787719825744368912e-02 -1.036639010816636612e-02 3.296794664447777207e-03 1.385833560963093403e-01 3.903498902827132744e-01 -1.242488126640381024e-01 8.814537949557551405e-03 -7.810705130519199901e-01 -9.223969155150665150e-03 8.144280393619075797e-02 8.995879984614683217e-03 1.949909366487565243e-01 1.726022960326401706e-02 -1.224306716754058194e-01 -5.134182676495629982e-01 7.737464121332894296e-01 -1.022931408227132577e+00 3.690038866111478577e-01 -1.677814374741450065e-01 -1.063974896412533289e+00 1.230699708173595752e+00 2.463429146192605002e-01 1.278256449243230786e-01
7.693547298644951571e-01 2.880118426951721808e-02 -7.639171377513678807e-02 -5.786255130262109997e-02 1.725082996294625276e-02 -5.708791263998924670e-02 2.312722605350961746e+00 -9.434671588893700500e-01 1.415418083852465203e-01 -2.436176350190613349e-01 2.127748263289814812e-01 -2.849385400114647360e-01 1.693702674934730035e-01 1.289600473523141999e-01 2.718573232943848339e-01 -4.620403456313726398e-01 4.431773454496484854e-01 1.162357236645136793e-03 -5.346518808265950801e-02 -5.470851607614901635e-02 -2.919359488154420548e-02 1.819614900708640265e-02 1.356650620642280147e-01 3.544839909721842486e-01 -1.534948742939147015e-01 3.921235090204565343e-02 -8.543497292219702777e-01 -8.312861124175372624e-03 1.022883861424664781e-01 -1.141364196594325635e-02 1.688140812928958234e-01 9.442523323407911104e-03 -1.306114129402541901e-01 -5.049347563874864164e-01 7.477465457444534280e-01 -1.002809990291255060e+00 3.243673614206694644e-01 -2.287049144364135811e-01 -1.085792431505494093e+00 1.254880582504455999e+00 1.920551957769960072e-01 1.968014647032376163e-01
