2.120482820094117538e-02 6.667095909107486392e-04 4.127170327255928750e-02 -3.505008840270140008e-02 2.912951764106581388e-03 -3.964786847617803034e-02 -1.543917543323187480e-01 -1.327862095805011633e-02 -3.441236805026640089e-01 1.482288321147595123e-01 -1.860599120845525811e-01 -7.196670270026735150e-02 -1.332098051687387839e-02 6.052884535493787549e-02 2.517851306860473606e-02 -2.274049850441297455e-02 1.306868953407724909e-01 -2.876627430589123180e-01 -3.877759971504524811e-02 -5.542658447742700861e-02 2.237603212267414224e-02 2.260575944651549429e-02 1.311035264602766481e-01 2.849660167397932153e-01 -1.300818256367841097e-01 3.186185892516635917e-03 -8.121364317870174432e-01 1.225123793850502098e-03 9.475007233253020245e-02 3.429627939374079153e-03 4.293808617726637550e-02 -1.122234229204020217e-01 2.556270135975265423e-01 6.893086887830143228e-01 4.367744997080323932e-01 -5.010830184006213051e-01 8.145030374347798918e-02 1.424200227064706670e-01 2.124408036075146056e-01 -6.954810254774393963e-01 4.016308435189799853e-01 4.821188251998075325e-01
-1.182007799793577049e-02 1.064801031837695963e-02 4.330728395880827086e-02 -1.114120546824492498e-03 1.115831729842192612e-03 -3.771755016468877203e-02 3.764016255166330871e-01 -6.835479768539232115e-02 2.201105985490783568e-01 -1.992542594342592427e-02 4.981385042970086774e-01 3.213958195066073942e-01 2.587687083563396453e-02 7.023969382775943626e-02 4.526368541671241079e-03 -6.707776209842952753e-02 1.564521293643609812e-01 -2.741470836840058656e-01 -3.535163035189123337e-02 -5.869643323561232057e-02 3.184656665392045401e-03 6.257262472956627575e-02 1.557594710448824971e-01 2.808898139178790387e-01 -1.173989583301291023e-01 1.410407464095712188e-02 8.210248930069683482e-01 4.607932929113697784e-04 -1.118392492930105342e-01 9.315021757741255744e-04 4.806688355175296745e-02 -1.087577955336729990e-01 1.923564803222518882e-01 6.616987800327545077e-01 4.566451376748870139e-01 -5.174446496127129702e-01 1.228048998671169983e-01 1.227323968269809079e-01 2.236940273301554205e-01 -6.623537080545323086e-01 4.806855741859975550e-01 5.389121125799349876e-01
-2.517378750412211166e-02 -5.332020554252892529e-03 4.237605840212405744e-02 1.113475626637494033e-02 1.903148209474465891e-03 -3.753762732924289386e-02 4.630089565649104788e-01 1.811503118893583592e-02 1.107336411458998554e-01 1.989502029660965843e-01 4.566890749268031624e-01 -1.933809776753787346e-01 -1.681188032452450229e-02 6.507126573698762684e-02 1.020340551950688285e-03 -3.545983818420643530e-02 1.501032841524512496e-01 -3.318294140795927660e-01 5.417329145475627446e-03 -7.040561563064298700e-02 7.514837938201476917e-04 3.439480301287375225e-02 1.502026116354508722e-01 3.399009184291640340e-01 -1.253652087527305503e-01 -3.884887828949394866e-03 8.356285041922205670e-01 9.362365272521122085e-04 -9.906263169200543728e-02 -1.096679565085464676e-03 9.564398325068273728e-04 -2.718906897364397057e-01 -1.317684410975281661e-01 -5.946589700359206088e-01 -4.015219924909556037e-01 7.053021077655722282e-01 -3.787163830562041700e-02 3.310204112036929658e-01 -1.607552808416084777e-01 5.890907087695672617e-01 -4.160780571159250485e-01 -6.521648833115780697e-01
-3.151866423854087634e-02 -1.954530716383024412e-04 4.463954194619648708e-02 9.135676534755877293e-03 2.639667745314162167e-05 -4.110898306346707359e-02 1.237823873230153415e+00 9.654099682154675816e-03 7.395505769505521521e-01 -6.538328296122524440e-03 9.827614688548372834e-01 -1.861568141941757036e-03 2.813618920416227284e-02 7.433029927258776037e-02 7.423942793663350533e-03 -4.365498897281501478e-02 1.428089938729088793e-01 -3.369482610560629032e-01 3.133195814362445958e-02 -7.497669836783221742e-02 7.085091937149353737e-03 4.387282598028282438e-02 1.428573342317737416e-01 3.358762307105264688e-01 -1.247891704918431544e-01 -1.884086658009582679e-03 8.349672754513544071e-01 1.278171349211656592e-03 -1.027222848720391879e-01 -2.959980997582283349e-03 2.279005017426021656e-02 -5.695860966806118308e-02 -1.935089178146062183e-01 -5.455311504964954761e-01 -1.042992273775593948e-01 1.457842337411087083e-02 2.049298620162547102e-02 6.406491023588722911e-02 -1.926434580100573613e-01 5.452202526661850124e-01 -1.056013643534164936e-01 -1.886928175901065458e-02
-1.057090086527003731e-02 -4.211457629215768187e-04 4.428785805798119563e-02 1.295710296761289765e-02 -1.245630980911991564e-03 -4.131282292484235452e-02 1.336358469170666030e+00 1.437916743281249070e-03 6.470505982041556692e-01 8.939754539149016290e-04 9.562002477247070198e-01 -2.741622015090225059e-03 2.617874509967109062e-02 7.303576309353072837e-02 1.048540186703298197e-02 -4.414913339504157597e-02 1.438240737224419641e-01 -3.389168914175925695e-01 4.571542508084953244e-02 -7.740924025329048996e-02 8.837627284421126217e-03 4.503741387757719677e-02 1.438923524186903891e-01 3.403213464663318866e-01 -1.176871953594769843e-01 -3.743355218643684614e-03 8.170077976142680054e-01 1.367489361245765233e-03 -9.896708694723577171e-02 -3.471205945400877586e-03 4.566090934527280987e-02 -3.739851939516861123e-02 -2.298202622903108838e-01 -5.387402442465635266e-01 -9.458106870207037831e-02 2.235278404229810913e-03 6.868480645125846565e-03 2.883255410257370976e-02 -2.346257120630119430e-01 5.366064315532377282e-01 -9.917400132084222553e-02 -9.815568639141885460e-03
3.389081205794396666e-03 -3.457995198328338835e-04 4.686501410983525545e-02 2.392144420944786187e-02 -2.235052544422693518e-03 -4.105722469439337940e-02 1.396761260398070581e+00 -1.890371817909498875e-02 5.202207838479731006e-01 7.765735608367190131e-03 9.452344839380210084e-01 -1.506002810529462549e-03 1.951714717706533320e-02 7.182809880400135849e-02 1.487845462277504437e-02 -4.433432878399357763e-02 1.438721212779495440e-01 -3.402216210819198894e-01 5.939891734232116000e-02 -8.027953431111586879e-02 1.151241064373088353e-02 4.533683127553175818e-02 1.442369804838673220e-01 3.381154325901047364e-01 -1.142472596934793055e-01 -6.544601155517170907e-03 8.040079674852085301e-01 2.076290622151843665e-03 -9.968616007198251305e-02 -4.793285265972058173e-03 6.607408975334541634e-02 -2.825289015680686189e-02 -2.910295820816922729e-01 -5.339597259094495119e-01 -9.742734109241450724e-02 1.448274007803268927e-03 -1.062621683421715972e-02 -1.529313709334555876e-02 -3.232830242735657555e-01 5.294700523406827841e-01 -1.027375519062477122e-01 -5.964248157344853411e-03
9.662112860980644202e-02 2.267696347890112846e-02 3.636223438067519992e-02 3.979349100258108840e-02 5.980253473885755768e-03 -3.883925381635672247e-02 1.563914508464800956e+00 -4.145186328466074488e-01 4.711970684201556847e-01 2.224752859709763775e-01 5.982905460871547065e-01 5.216363438028298605e-01 1.574974746709564555e-01 1.117160943569298903e-01 2.571589461374559210e-02 -1.176386728873889467e-02 1.198619869150180928e-01 -3.860967370255254938e-01 -9.342651393128157192e-03 -5.572168458519652368e-02 2.253053532812212753e-02 1.130930681655484618e-02 1.308421401375763071e-01 3.846971205804349259e-01 -2.071669687110828939e-02 7.166611796451639871e-02 -1.243966002157913531e-01 -1.078640559552287385e-03 1.764676744117662371e-02 -1.175482554519062355e-02 -7.276104621824943351e-03 -1.189639992560334453e-01 -2.853167550083258730e-01 -5.239614008308294268e-01 -1.010246614256521125e-01 1.476094079452521142e-02 2.034544124226334294e-01 -2.038848281746576951e-01 -5.512307487067477085e-01 5.537121449573084719e-01 -1.155761721871471498e-01 4.223986908000820079e-02
-1.473093556405458832e-02 5.308461755205794164e-03 5.095428882758456374e-02 1.690908937984943461e-01 1.460255734751103596e-01 -3.157253975441801780e-02 1.666375448628631073e+00 -1.313029035590282945e+00 -8.758582880097408319e-02 1.899636379933727359e-01 4.962173860831719518e-01 5.187359903071037115e-01 2.551164093644118225e-01 1.455982211540497728e-01 1.571838748078779324e-01 -4.962042114377005486e-01 4.842228703253240174e-01 -7.489365555136723307e-02 -8.419296187277167109e-02 -5.025196193892431107e-02 4.898636287489541857e-02 3.204035399380071591e-02 1.459075500705642181e-01 3.481542009239281255e-01 -1.232579534115736952e-01 2.349587615889217260e-02 8.377693613432248831e-01 -3.507454951865070225e-02 -1.500596327862721013e-01 3.705767019955400615e-02 -1.247981756509212309e-01 -3.270285716820077182e-01 -2.351932393217823491e-01 -4.998263081489121018e-01 -1.648414557086385623e-01 1.368038049589142546e-01 6.732689912337500582e-01 -2.420032081551678482e-01 -1.347253633407289763e+00 6.831997352859430217e-01 1.240035039172049797e-01 7.472475092288178855e-01
5.949072901384235001e-02 5.422066538343014996e-02 5.470581927750713808e-02 1.239094777057062752e-01 9.043357422869287288e-02 -3.935455857827634130e-02 1.653297463967370540e+00 -7.481244052206375006e-01 7.538153074065238879e-02 1.581803718851819140e-01 4.366675581258896433e-01 5.143511754573094619e-01 -6.447360768774009765e-01 9.448656071976128945e-02 1.007479880698318286e+00 -5.276515915912792787e-01 3.951749874977882881e-01 1.390301722823995278e-01 2.589216397962907923e-01 -1.646638416985051756e-01 4.275477108111808144e-02 2.550209506888308914e-02 1.285950289369235111e-01 3.158318721487661240e-01 -1.711527676679339138e-01 -7.368457007405717629e-01 3.202209032936807753e-02 4.277244415495312993e-03 -2.634727667849217150e-02 2.033717515238873529e-04 1.350456752321414211e-01 5.197583926162632068e-02 -2.730183152686549430e-01 -5.255864559154921345e-01 -1.019599959550172852e-01 1.034634020469270971e-02 2.921368897908132034e-01 -2.897611561551615908e-02 -1.291296965992228873e+00 1.231553019591209663e+00 1.836974438747347727e-01 1.096981639737956427e-01
7.571458428042601163e-01 -4.426802552574785055e-03 -7.041328914054899302e-02 4.185446190996727767e-02 1.098387471040666030e-01 -4.664849486182409688e-02 2.383285644773519341e+00 -1.141661343707517817e+00 1.565718524527701661e-01 -1.424861118377568903e-01 4.030817889352940053e-01 -4.294917860929227116e-01 2.102461295827879606e-01 1.448808477705618714e-01 3.096739442349633054e-01 -4.772764476255380028e-01 4.309367447455871303e-01 3.962747449538424338e-02 -1.469798787308043697e-01 -2.017257458901832237e-02 2.085239525145536621e-02 1.799965624826181318e-02 1.492704028771270897e-01 3.476275040772963676e-01 -1.035016412780964679e-01 7.695826779037759358e-02 -7.559068357281798489e-01 5.010093308402499036e-03 8.322451863951846329e-02 -5.808057031671061757e-03 7.139982750013909585e-02 -1.520563947403524019e-01 -1.072214411614473284e-01 -5.333514807541676062e-01 7.350790316600003260e-01 -9.204358675692720926e-01 4.933926623130002187e-01 -1.022627409004948779e-01 -1.300588844070374339e+00 1.260492573511102776e+00 1.991369396425134997e-01 1.148424094398819290e-01
7.649390895538983326e-01 3.211950520713761914e-03 -7.239190499838105142e-02 1.441435615176557203e-02 7.837216595096851979e-02 -4.887310792756618949e-02 2.402509819352000697e+00 -1.153102870552435322e+00 5.237443576270139900e-02 -1.389943491587710411e-01 3.040305186471111143e-01 -3.461170449050786635e-01 2.140996824146756405e-01 1.354162376326509820e-01 2.392847838340077804e-01 -4.692643045331882923e-01 4.397172859351543561e-01 1.094963391325738840e-02 -1.359370068044005175e-01 -2.353059678161193227e-02 8.368701120300829285e-03 1.574283323913366894e-02 1.475648879599434915e-01 3.504866707790902369e-01 -1.142781185199241711e-01 6.481861476734573912e-02 -7.902025496960816131e-01 -4.092406561226383764e-03 9.478210544370287149e-02 9.938087369729382923e-04 5.885485891372847084e-02 -1.582403484628733259e-01 -1.155732409625595120e-01 -5.429824919182166809e-01 7.334880598352010450e-01 -9.203921182005337931e-01 4.465230112054359712e-01 -1.509355759065977576e-01 -1.342862590394988231e+00 1.279324691304834616e+00 1.684224064439894530e-01 1.292385907265017342e-01
