# Linear uranyl:
1.793793375422839675e+00 1.797825707138082985e+00 5.802439350631888315e-01 -2.066779082506296078e-02 8.308249723803848852e-01 -1.018973077022430548e-02 1.972927282727591491e-01 -5.726165904100753538e-03 2.572137717517151978e-02 7.835722365388497757e-02 -3.122562985999636775e-01 8.292172903765057668e-02 -1.891404019699423067e-01 5.031265158851392361e-01 -8.860345525843067727e-02 -2.007874766534818722e-02 -3.404452417350350979e-01 -2.350418772597106729e-02 3.464159809691079173e-01 3.365372327029949040e-01 -4.525390725788336344e-02 -1.041515373554954306e-02 4.308331567957374708e-01 2.460161107341297948e-01 -1.479943890146619423e-01 1.909141815841348955e-03 6.598176479432599217e-02 -1.447368472285467944e-01 5.576926761870054650e-01 -4.709183420358810657e-01 -1.375099611663782861e-01 6.449017225828224120e-01 8.966655516371241363e-02 1.110477355190830767e-01 5.413213108929213480e-01 4.827462267691681741e-01 -1.484088135962572108e-01 -6.390772202061757445e-01
# Flexible (but almost linear) uranyl:
-3.240568258758429188e-02 -4.761557778459543644e-02 7.154729638762095598e-03 5.232310950124549609e-02 -4.207259334099891501e-02 -6.882812585156532041e-03 1.402069979165053049e+00 1.046230375939916080e-01 -1.044492130565163768e+00 -5.952194767215827076e-01 -4.280783253222844031e-01 -5.653267110122274230e-01 5.687987409201437083e-01 4.129518508246121100e-01 7.234286407380696726e-01 -4.066387927038225825e-01 2.786096373498711531e-01 9.211366395471745072e-01 5.380299704446702691e-01 -3.786906017305545769e-01 7.676012706497988836e-01 4.259541070828199438e-01 3.868080343905423990e-01 -7.947818845060957704e-01 -1.076026106585670494e-01 8.962301350860352178e-02 -6.346453162410730098e-01 3.598717929201811772e-01 1.662358592491298137e-01 6.702593175373915413e-01 8.834905378080384342e-01 6.967914833252718543e-01 -8.075863962015937814e-01 -1.203588828495515850e+00 4.804546170901705104e-01 8.331598667185756424e-02 8.205632598509435827e-01 -6.401470202601460269e-01 -7.766606411742583704e-01 1.169253638419327279e+00 3.393578254571616437e-01 -1.787048385236361669e-01
