5.014737712776850403e-02 -8.685615115457859248e-03 2.733336934031277941e-03 6.971316132392378628e-02 2.685523774996734746e-04 -1.054853402338924023e-02 7.935754043898176624e-01 2.044097663708440999e-03 1.006706922574266860e+00 -3.871119854476460370e-02 1.907785280453722920e-01 -3.506062724593264623e-02 5.245377220635717014e-02 8.187389060121244566e-02 -3.811167683785170457e-01 1.382763415903533744e-01 -7.083226444600856930e-02 4.542395493388001193e-01 -1.414999027179624780e-01 -1.848503778875661488e-02 -2.745198349087775158e-01 4.318792283286378153e-02 4.031821279086135190e-01 5.553077681772450314e-01 -3.914633293115815649e-02 1.465507289328781340e-02 3.466147931843178709e-01 2.664875707153082640e-01 -1.058509725746553665e-01 -4.162069752783898596e-02 2.305880472077816434e-01 -7.140773732483654546e-02 7.671589982259856555e-01 -4.000625526460964143e-01 -1.617238725871093796e-01 6.910091782218461542e-01 2.220410633694931968e-01 6.341214368738544438e-02 7.280996672478394771e-01 4.441551504883126666e-01 -1.538500068061218473e-01 -6.965817800353117928e-01
-3.240568258758429188e-02 -4.761557778459543644e-02 7.154729638762095598e-03 5.232310950124549609e-02 -4.207259334099891501e-02 -6.882812585156532041e-03 1.402069979165053049e+00 1.046230375939916080e-01 -1.044492130565163768e+00 -5.952194767215827076e-01 -4.280783253222844031e-01 -5.653267110122274230e-01 5.687987409201437083e-01 4.129518508246121100e-01 7.234286407380696726e-01 -4.066387927038225825e-01 2.786096373498711531e-01 9.211366395471745072e-01 5.380299704446702691e-01 -3.786906017305545769e-01 7.676012706497988836e-01 4.259541070828199438e-01 3.868080343905423990e-01 -7.947818845060957704e-01 -1.076026106585670494e-01 8.962301350860352178e-02 -6.346453162410730098e-01 3.598717929201811772e-01 1.662358592491298137e-01 6.702593175373915413e-01 8.834905378080384342e-01 6.967914833252718543e-01 -8.075863962015937814e-01 -1.203588828495515850e+00 4.804546170901705104e-01 8.331598667185756424e-02 8.205632598509435827e-01 -6.401470202601460269e-01 -7.766606411742583704e-01 1.169253638419327279e+00 3.393578254571616437e-01 -1.787048385236361669e-01
