8.831369493262536396e-02 1.469050891100569765e-02 3.627906612373656137e-02 3.336247803918305360e-02 -1.249313427687230192e-04 -3.764929959050245661e-02 -1.219784924979448043e-01 -2.345977692475739729e-02 -3.629089814213053433e-01 5.040175955805139066e-03 -2.106534234332559652e-01 3.462717922526119263e-02 8.110649045488160791e-02 5.751798373823651528e-02 1.818986149692048901e-02 -2.494709477528879102e-02 1.211962407801013553e-01 -3.544011288572442853e-01 5.379540589035152615e-02 -4.604562378538087919e-02 1.903113859676870689e-02 2.379996713827120525e-02 1.235101577782631022e-01 3.534296142137224872e-01 7.799928676854729626e-03 1.599558164267867247e-02 -4.603936160766278207e-02 1.088160700061651949e-04 5.753179732606706828e-03 -2.953747914878623437e-03 -6.041353190747094509e-02 -7.294554349797106874e-02 1.480254549378566264e-01 2.251247596002490803e-01 4.018624345402175418e-02 -7.906851513789130148e-02 7.908824838014040168e-04 1.104045800761927071e-01 1.267650404336910785e-01 -1.671353384730047964e-01 1.007436863910770621e-03 6.978635942586999819e-02
3.230770268156182151e-02 7.946979723514616123e-03 4.318055949133604160e-02 4.646261678776009846e-02 3.544525155397825226e-04 -3.610578276334712455e-02 2.785970268287475404e-01 -9.083279036744077925e-03 1.962415867933695393e-02 -1.697446842440137466e-02 3.898591763249835140e-01 4.369522714845389816e-02 9.518827310266597674e-02 5.820068772810024077e-02 1.376122341670368149e-02 -3.604200556813450668e-02 1.386731386085585105e-01 -3.246486862577039334e-01 7.125934271778877616e-02 -4.791125418201759578e-02 1.169628645332617366e-02 3.537634987722085289e-02 1.390115681373705059e-01 3.208874270694478392e-01 -5.632077595139664203e-03 1.165121229494709559e-02 2.838931407662839690e-01 3.610782916782606200e-04 -3.621327279822339484e-02 -1.773088345715117479e-03 -5.423997474157182808e-02 -5.305343599210445016e-02 5.046262470279435502e-02 1.065592467184025144e-01 -3.162918492101899487e-02 -1.392719367041703182e-02 3.445739493270075574e-04 8.634645712857466626e-02 2.918708987850363382e-02 -4.798914468633363323e-02 -5.903543069546682981e-02 -2.743288611624030912e-03
1.961459883092991907e-02 6.964665498884048747e-03 4.365312456029256383e-02 4.118054065485599047e-04 8.971537539536977943e-04 -3.956941709549475356e-02 5.095129262425966976e-01 -5.292030787085793761e-03 1.406143095482302874e-01 -1.498003693019807174e-02 5.165648161770354241e-01 2.337636236554851282e-02 1.219916439213186710e-01 5.531390341892414991e-02 7.555106444669066994e-03 -5.624793468786420253e-02 1.441797868760538448e-01 -2.186295275718294906e-01 1.031240433609113410e-01 -4.803536119662908666e-02 5.032760212901301461e-03 5.455764064506051642e-02 1.446262232122521862e-01 2.209554295240762911e-01 -3.962997168898405032e-02 5.482103662473957091e-03 5.112978552326066239e-01 5.150931885896806520e-04 -4.341626944234561192e-02 4.384961874073339252e-04 -7.474131577420635442e-02 -1.098728229517278998e-01 -2.860814709727528202e-02 -4.274063150006288114e-02 -6.735266257183740446e-02 2.204086553370534496e-01 -4.884540270198137191e-02 1.226898248702758820e-01 -5.002459777383762990e-02 9.402535921224285109e-02 -8.436111665062202836e-02 -2.232681296060990694e-01
-1.000312977521583893e-02 3.156197238322694387e-03 2.523800123105388385e-02 9.655841834414109065e-03 5.562542192282751534e-03 -3.078531038532397388e-02 8.191902573705355239e-01 1.599386184950813729e-03 3.596556764181151888e-01 -8.294545140527832816e-03 3.883233039108414109e-01 1.468994841037597580e-02 1.346917337728665565e-01 6.943765772992294139e-02 -1.860218258703678906e-02 -6.862861622804744544e-02 1.608218707585820084e-01 -3.099800740225564510e-01 1.187773886516843153e-01 -5.959374130923687091e-02 -1.859326067914939679e-02 7.117610029856698273e-02 1.725189030586521399e-01 2.875434539253019506e-01 -6.090762490092285070e-02 5.086418589463519331e-03 6.371385207875743806e-01 5.904355190561420830e-04 -5.766784533470409313e-02 9.036476277336883160e-04 -1.747299687930260401e-02 -2.696480796043229655e-02 -2.054760845885610920e-01 -4.642257994064901694e-01 -5.941074600332965638e-02 5.910872875224337797e-02 4.246459651217927844e-02 5.029441332581105484e-02 -2.062163050072357562e-01 5.128899735514829139e-01 -1.027822080712472441e-01 -5.566296959068305766e-02
-7.211756623636354953e-03 6.102064296443230132e-04 2.648239205031801061e-02 2.047653126217708480e-02 3.167993739258019407e-03 -3.342850511222809212e-02 1.154985761579055303e+00 1.103455965906580995e-02 5.089449216360030226e-01 8.549027251516990236e-03 5.302383215447126208e-01 -5.054601623119285916e-03 1.269165464014882505e-01 6.485046459061685753e-02 -1.117350732365897208e-02 -6.381084715167638366e-02 1.577933508387744377e-01 -3.081061328535386612e-01 1.022206239347199230e-01 -5.972398983062007782e-02 -1.250107121569832454e-02 5.582411097885470186e-02 1.385501133447280264e-01 3.355748009656396302e-01 -4.111261558738103783e-02 2.508549526309693961e-04 5.395320537047162412e-01 1.503625762181717883e-03 -4.915661006971684677e-02 7.300788214949487792e-04 3.463869372188182333e-02 2.965628875617273841e-02 -2.859975393681258860e-01 -5.401162818492080131e-01 -1.054534503336272272e-01 2.525012229629556085e-02 7.829558257625153506e-02 9.964039299163618413e-03 -2.696214107586374364e-01 5.483313074328350911e-01 -9.822972900652207628e-02 -9.335604683939090209e-03
3.030092574487543503e-02 2.758752199021308714e-04 2.527922334414778316e-02 6.117715826023137349e-02 6.500398341533770996e-03 -2.292054939557148369e-02 1.420325872512086640e+00 -9.098934827551167712e-03 4.756249994355248867e-01 1.155905080823275283e-02 9.121629357949306849e-01 1.824574552558411167e-02 1.360547570651383098e-01 7.886658942752058921e-02 -9.347233118443324523e-03 -2.158297669670082922e-02 1.387673643251440825e-01 -3.610372095697650385e-01 1.414689662107797841e-01 -6.886687353564764635e-02 1.235702729522997548e-03 4.366468749954985351e-02 1.521968279726564621e-01 2.889301718497567784e-01 -5.842102164492089279e-03 3.437207239390160755e-03 3.278122071300514917e-01 -2.242137390373257107e-03 -3.383505902841821983e-02 -1.020764200567596779e-03 6.323949174237922244e-02 6.461101953758537075e-02 -3.149490022902911579e-01 -5.360439374474426089e-01 -1.142177735698065438e-01 1.427136739048065830e-02 1.089392963796589620e-01 -7.762638513898738324e-02 -2.928436467252613085e-01 5.329539676643256785e-01 -1.173280953771980856e-01 -2.346409182648240971e-02
2.799123410036955667e-02 2.895103738904863944e-02 4.784850785163217990e-02 7.559204855192927508e-02 3.231567867733038668e-02 -3.512382426521169082e-02 1.440514431822611741e+00 -3.012099977717314636e-01 3.043434017577179573e-01 8.227045254443692002e-02 5.863442507432523598e-01 3.805596712077250476e-01 1.451472468769547108e-01 8.599398869362710751e-02 1.907735155418383705e-02 2.275565580353737516e-02 1.151426416083453641e-01 -3.751354518804379534e-01 1.764506717397135160e-01 -7.426883169799453066e-02 3.227237356017264441e-02 4.959936496351851493e-02 1.498541877263299960e-01 2.055064308860222178e-01 5.910965923588288110e-03 3.354963954448770755e-03 1.539715569506548976e-01 -1.638581645310070722e-02 -2.378316535586972799e-02 -2.168792198995489473e-02 4.550618177490448751e-02 4.474949289587425161e-02 -3.601894123017228555e-01 -5.045957710889042991e-01 -8.632805590659481387e-02 -7.657264759142790728e-03 2.460860861546252665e-01 -1.621496431457189469e-01 -7.024380848867284310e-01 5.476517832608037706e-01 -1.068220963778292038e-01 7.132814364724016087e-02
2.992710063457002315e-02 5.386286825182946131e-02 3.614314276092113476e-02 7.604785376096594163e-02 7.210041523736070157e-02 -3.056148227785380686e-02 1.555334590497308378e+00 -6.400775068616237906e-01 1.459036926449078231e-01 8.625440426294320173e-02 4.693589900735578579e-01 5.107716787429021910e-01 7.470600943304457620e-02 3.883111818184637604e-02 3.659423625499113597e-01 -4.656706131539349869e-01 5.262929664841647925e-01 -4.417989157825655960e-02 2.359472009547954885e-01 -1.220133129561688234e-01 4.264265271139001251e-02 7.585214451790955881e-02 1.152950991815451520e-01 3.480409137443346013e-01 1.655560989030107743e-03 -2.157230296108134104e-01 2.882002016958562854e-02 -2.623715800856269223e-02 7.464411991522795081e-03 1.694105223103349600e-02 1.156813459835423080e-01 1.306694009767891962e-01 -2.942133821739613131e-01 -5.252992317290824387e-01 -1.131995461000392666e-01 5.831074344487503780e-02 3.926948357306338511e-01 -1.730629218887460574e-01 -1.087580544339942223e+00 7.663305346980738841e-01 2.079764326038061051e-01 4.922522469926475241e-01
7.178427396593352328e-02 3.261153540157549213e-02 2.801387362477875467e-02 1.621709356311262507e-01 8.040810113480859056e-02 -1.397240318813192626e-02 1.602755799048055430e+00 -6.117255529757672505e-01 2.935893002827271586e-02 2.312970230249723758e-02 3.207604537932195465e-01 3.785514595450280018e-01 -4.425481075852180646e-01 7.016894518701188854e-02 8.929833355892716762e-01 -4.521892227676837517e-01 4.891918111926635837e-01 2.565598164282457683e-01 2.345075187284094698e-01 -1.240696651582449267e-01 6.766872818097449671e-02 5.267506011977008545e-02 1.130642821372812301e-01 3.749771500585613593e-01 -4.630751610293609710e-02 -4.707421296321828708e-01 -4.569850217697499217e-03 -2.678030658715043616e-02 1.138476575836843210e-02 8.960079614184558727e-02 1.246622567817153304e-01 1.467961625090928590e-01 -3.436794871480380320e-01 -5.154938285423731337e-01 -1.200645283599856422e-01 3.199440131244826735e-02 3.506474326894903903e-01 -3.482589786417899375e-02 -1.252547612030624258e+00 1.280106207043368638e+00 1.614627452856588485e-01 5.312139582128867082e-02
6.722950635587923163e-01 -2.192624226553770324e-03 -5.631906344163359335e-02 1.235732203947266378e-01 6.293867916071600732e-02 -3.617924694743492736e-02 1.829064863159161503e+00 -5.127210206554849714e-01 7.425085466294373271e-02 5.711223822493342872e-02 1.189643568183654382e-01 5.424414536140990256e-02 -2.820700656308521292e-01 3.551422544134467257e-02 7.722626188193645325e-01 -4.947338190490525589e-01 4.607272399053575218e-01 9.354519153723035718e-02 3.068556795838705553e-01 -1.336461029890164964e-01 -3.736852907694765413e-04 5.327351394808499396e-02 1.438943015459585029e-01 2.263295125274610853e-01 -2.085089627520420735e-02 -3.189428341106391729e-01 -2.292258123568514661e-01 -8.740156552431483164e-03 -1.529076251473329012e-02 3.043084757941245597e-02 8.578531088559113171e-02 7.663268858013054519e-02 -4.274500268016007687e-01 -5.955069937465402585e-01 3.081120202486022919e-01 -5.617432568651860025e-01 4.084008231772244812e-01 -7.583759125469365092e-02 -1.268737741022964993e+00 1.231231542773238985e+00 1.726129754277138662e-01 2.293667018502179578e-01
6.717783844098109691e-01 5.413477116754491364e-03 -5.380853060814572153e-02 6.874857787672110365e-02 2.207097400547276822e-02 -4.584261245280378538e-02 1.889689284626132615e+00 -5.226846633746181636e-01 1.745932801774923576e-02 9.545531977956438208e-02 8.320729725059029802e-02 -1.737312101749158982e-02 -1.624454936838254926e-01 5.328549981759225784e-02 7.286652308841774506e-01 -5.069257915136164971e-01 5.089338139198003041e-01 1.002186567715473570e-01 2.692187719928789691e-01 -1.241042972304620545e-01 -4.582501940421379594e-02 5.182057618882165290e-02 1.240694548732198810e-01 2.459837701539092925e-01 -3.975960688946336696e-02 -2.775406820258424223e-01 -4.028125484079945751e-01 -3.480552366760601701e-02 3.794013579997276842e-02 4.247842353141723093e-02 1.359905785759966679e-01 1.190402229218583685e-01 -4.301237321117643009e-01 -6.010579380219011059e-01 3.297722061177213448e-01 -6.465355249408282212e-01 3.374211252990911847e-01 -1.647555829005998007e-01 -1.250291465959140647e+00 1.240414506246520165e+00 1.385209395444375879e-01 2.843044865133282917e-01
