2.250173244859057786e-02 4.531305495629469552e-04 4.172017077940158580e-02 -3.494062302843257278e-02 3.275087959363491303e-03 -4.031620413407546732e-02 -1.439730576719320254e-01 -3.453038004425807578e-02 -3.161562212840189345e-01 1.997060541994868654e-01 -1.904186369251135713e-01 -6.178707329849266600e-02 -6.273173718983149003e-03 6.252968515076462452e-02 2.746692509593395490e-02 -2.354194508155500742e-02 1.298135354391801166e-01 -2.761027275129229741e-01 -3.493625908391374824e-02 -5.693792893983747050e-02 2.479867032646652925e-02 2.427720984331860343e-02 1.309455391354359122e-01 2.775186460044957171e-01 -1.294925387803611827e-01 3.888164837822025675e-03 -8.103390823315815839e-01 1.730104977428210088e-03 9.398573165150239661e-02 3.021391911652241118e-03 4.339145866848820310e-02 -1.165963629069322050e-01 2.744080706166467931e-01 6.903474959416130430e-01 4.480046616537251003e-01 -5.080653008783178048e-01 8.594643895518074006e-02 1.409793297196184070e-01 2.104504144127627430e-01 -6.929626356336052728e-01 4.087588985900854066e-01 4.851273274052801399e-01
-1.573919151656309398e-02 6.866429091393098233e-03 4.362739760071941697e-02 4.157885530807555949e-03 3.964405895854181475e-03 -3.799875094281585097e-02 3.857527730399097354e-01 -2.428142637080109023e-01 1.468025452396331254e-01 2.803615026325904092e-01 4.371616516210811154e-01 5.435995504294012237e-01 1.789882768327014442e-02 7.081098899644452938e-02 3.023978584552442991e-03 -6.791021905873217968e-02 1.560134797819836272e-01 -2.889346101109946385e-01 -1.907695863393803551e-02 -6.235684977602334866e-02 2.079586603111177340e-03 6.482117141359400314e-02 1.575896568096610828e-01 2.758720132495960931e-01 -1.222144508305252064e-01 6.065883302216897553e-03 8.344143762208811044e-01 -1.693073131580484589e-03 -1.194849592424877815e-01 9.239620016660211226e-04 5.684964656939031635e-02 -1.194685228375909902e-01 2.306374068751228523e-01 6.930702670683251965e-01 4.735948450424480871e-01 -5.195634968663260800e-01 1.269297893704079139e-01 1.193938631213275064e-01 1.932792180456779363e-01 -6.771483318966233789e-01 4.847259322058559139e-01 5.264443141304537832e-01
-2.443713761384155164e-02 -5.198234748054551824e-03 4.185813653161420816e-02 1.113884356827356259e-02 3.605569752379954220e-03 -3.736930737495743754e-02 4.309550550678962200e-01 -4.412242579317034175e-02 7.825050458622152816e-02 3.929037055525790301e-01 3.722510114789721047e-01 -8.856938547164519560e-02 -1.676645267443148055e-02 6.364873528567142891e-02 2.665610939616667140e-03 -3.818252658130812799e-02 1.491842626491046708e-01 -3.211967502481730685e-01 3.143019248970092827e-02 -7.445161198194616414e-02 2.061122326464564884e-03 3.904053782329801325e-02 1.502033594803142968e-01 3.185536328555969021e-01 -1.252974352221922494e-01 -1.293990904189268668e-02 8.293380393285921803e-01 3.692457775564237082e-03 -9.459325456860902259e-02 -1.193328135839572327e-02 1.455361785170110507e-02 -2.533638092907138373e-01 -1.106369340575562993e-01 -5.927816711259252802e-01 -3.960872780177951968e-01 7.098353235465456601e-01 -4.255478068845385681e-02 3.435397701676904392e-01 -1.631603040981576547e-01 5.855952751344316587e-01 -4.197487178171552813e-01 -6.565562887656629654e-01
-3.191887142686987422e-02 -6.150579752866832447e-05 4.469991308346862174e-02 9.362696501636067967e-03 5.935821088098134778e-05 -4.126093156885469321e-02 1.237536588087642331e+00 1.285407845616607465e-03 7.388353461072356687e-01 -7.271427523633744667e-04 9.821173483648878433e-01 -4.029472858167252301e-05 3.103353178078112340e-02 7.382491160733344049e-02 6.868083788150883620e-03 -4.351216213526167692e-02 1.439923470935766392e-01 -3.367080271588230866e-01 3.046528363446650983e-02 -7.370868249995501942e-02 6.916633159754305427e-03 4.349864214759328884e-02 1.440006357091449252e-01 3.363006812649038668e-01 -1.249660621231509922e-01 -1.460944502779776787e-04 8.348475308408490614e-01 9.874554179596355271e-05 -1.022156112005904866e-01 -2.952151974762895915e-04 2.163005059299186877e-02 -5.647556293975987407e-02 -1.927334113377881797e-01 -5.407495677381656263e-01 -1.001337573350967181e-01 9.678684322050972594e-03 2.361533741820681306e-02 5.844993033943246541e-02 -1.925719104724356867e-01 5.413905806626851946e-01 -1.005082976396103611e-01 -1.048116339328103788e-02
-1.044635574197311755e-02 -3.868359601777894693e-04 4.411183385285030040e-02 1.304934084951320933e-02 -1.272755080448082637e-03 -4.117880890496249113e-02 1.337190850393635166e+00 -2.438615864492478785e-03 6.479894859818391417e-01 3.000017641400173646e-03 9.565651397638812448e-01 -1.666937297801799993e-03 2.639654638051946653e-02 7.321045306232447369e-02 9.847529295172401109e-03 -4.384062039523520943e-02 1.440661291112013687e-01 -3.400607806935161959e-01 4.507594207827414490e-02 -7.722260254752506825e-02 8.133116427007869298e-03 4.427696361748959669e-02 1.440709294271734220e-01 3.404130804246451869e-01 -1.178022914848721459e-01 -3.236906941146067227e-03 8.175723860006768318e-01 9.177219517043645443e-04 -9.969093947548408885e-02 -2.137697676542168676e-03 4.438353980953028965e-02 -3.945237903150327491e-02 -2.300676622520508863e-01 -5.402105956551956911e-01 -9.616906420298464153e-02 4.781914160517966930e-03 7.902983072252397351e-03 2.758356542816755089e-02 -2.354207717276874390e-01 5.372832315045128482e-01 -9.972257679981202938e-02 -9.672717198173809774e-03
2.345793128451808315e-03 -2.992106409259622088e-04 4.698316697573728246e-02 2.464234461622160852e-02 -2.162594210833412248e-03 -4.088057048220716111e-02 1.393728355594932244e+00 -2.388529911402383771e-02 5.133451453780559781e-01 7.914168103132444496e-03 9.479780988173467371e-01 -1.194461328104887404e-03 1.984852797070127406e-02 7.236880589911073858e-02 1.493489982237089855e-02 -4.433483935222772704e-02 1.436674985651955339e-01 -3.430185357902236221e-01 5.499292816682737478e-02 -7.971939247970298570e-02 1.210115482677753297e-02 4.492661675657608211e-02 1.437032462758910667e-01 3.436830744894631140e-01 -1.145798223407407807e-01 -5.833604390254213540e-03 8.044019975171099457e-01 2.045066679052079655e-03 -1.003577638285561985e-01 -4.607619199158936169e-03 6.378815094388258500e-02 -3.129268464378877346e-02 -2.937891695227932143e-01 -5.339756762947704960e-01 -9.903829951307341339e-02 2.966022646900373996e-03 -7.886413619325471219e-03 -1.751550688620941848e-02 -3.272098606457957137e-01 5.298699261487799239e-01 -1.041507942306420242e-01 -5.795650423502663774e-03
8.518095975906193884e-02 2.767773383995027203e-02 3.711068388274811614e-02 4.777012826804404207e-03 1.503836587188870332e-02 -3.450550426926105030e-02 1.567567128339536930e+00 -5.716870466081941382e-01 4.233905672046124335e-01 1.770177949880947232e-01 6.075454110192511914e-01 4.819689040032548166e-01 2.496975802898073471e-01 1.478284376035471359e-01 -1.244714184783421787e-02 2.951128513134554376e-02 1.121647858228945471e-01 -3.520186234528066560e-01 -9.082858830025798691e-02 -4.356996107283607478e-02 2.019622769936454607e-02 -1.097733003709537927e-02 1.255305947098564745e-01 4.046598241369466775e-01 -9.207847365322127664e-02 8.747296182030553369e-02 -7.557248200898831758e-01 -1.423110457480245353e-02 9.475610118275208660e-02 -1.064586650161455060e-02 -5.438095054755813507e-02 -1.895385963422923925e-01 -2.474886315763959455e-01 -5.053531357783933586e-01 -8.493235488307949999e-02 7.966192308790680937e-03 4.078631468021701734e-01 -3.752198376047137240e-01 -5.564241277087993431e-01 5.617558401891015185e-01 -1.145293322283696263e-01 6.773866776966706860e-02
-3.028959353150710229e-02 -8.366441245371101110e-04 4.816875018473507769e-02 2.791623166819497404e-01 2.303641945945980873e-01 -4.828779844233238062e-03 1.653911576926700100e+00 -1.400151447805557892e+00 -2.525515960509053248e-01 1.566269137604096862e-01 4.529146718831912333e-01 4.913880616972541859e-01 2.662824900342302126e-01 1.482384797831582945e-01 1.553284050463269728e-01 -4.924055329584390850e-01 4.763967072364635458e-01 -2.642338513614728157e-02 -1.189044839056057207e-01 -3.772884676615043120e-02 9.349659982093606880e-02 4.324497203161938030e-02 1.413521744606756891e-01 3.113849830925493611e-01 -1.275297942176727151e-01 2.569269183816127317e-02 8.119639501406602511e-01 -2.527038157563497867e-02 -1.212354199323610465e-01 3.861012775145086090e-02 -1.325537385985431638e-01 -3.800003257338368523e-01 -2.744136933906888842e-01 -5.303866382012668579e-01 -2.366219201419254570e-01 2.226760936754637044e-01 7.715331237593112679e-01 -1.706063134802141834e-01 -1.478712260679909019e+00 6.962012658409559851e-01 9.363543185943258573e-02 7.790484478395686141e-01
6.608952316228548785e-02 5.668768804289903152e-02 5.322724369929519861e-02 1.385495689321719071e-01 1.104177945797355925e-01 -3.673959260332214372e-02 1.695527665890814051e+00 -8.841628930128248021e-01 7.852181680861283763e-02 1.878218855703284729e-01 4.575969867472257091e-01 5.405919415942463946e-01 -6.236842875250087070e-01 9.664817285911149469e-02 1.002243060263247498e+00 -5.256157778593338881e-01 3.976951622968896150e-01 1.440331776063386027e-01 1.380885925152572913e-01 -1.212590247527705889e-01 5.234649723359956208e-02 2.664604875440568926e-02 1.302312340478247454e-01 3.132558479224178960e-01 -1.620712799810599680e-01 -7.090654349409108992e-01 3.519838234569463986e-02 5.558957634107737460e-03 -2.685137613329149214e-02 -9.509682054214417882e-03 1.001228561389091824e-02 -9.562627194132376773e-02 -2.632586130967315974e-01 -5.160274712022757670e-01 -1.043069854842236660e-01 2.131590693650782867e-02 3.367974572157969027e-01 -4.492416040747736899e-02 -1.343862363157040551e+00 1.242937046394217093e+00 1.739918225926682938e-01 8.943571000332535548e-02
7.508287469625347654e-01 -8.224740108343165518e-03 -6.794871769604314549e-02 5.213514979533966087e-02 1.114119072105061864e-01 -4.840391045444528834e-02 2.361912685409363277e+00 -1.159199108258046618e+00 1.297235101830035431e-01 -1.434559104986412315e-01 3.717137734604782362e-01 -4.160643109392903050e-01 1.960850238529385781e-01 1.361668349506459930e-01 2.866426247687000051e-01 -4.722651626938885183e-01 4.332497048689533115e-01 1.972977482405957952e-02 -1.333927706117320477e-01 -2.278130056284142363e-02 2.329044529072034353e-02 1.887077581999968903e-02 1.461068081412089659e-01 3.571193316992125055e-01 -9.417396858127469184e-02 6.435758790026374632e-02 -7.412882579018110762e-01 -2.504972172746028260e-03 7.691978033378087110e-02 -6.574924674748805660e-03 6.647368209590896748e-02 -1.495283678037942765e-01 -1.032683894372413286e-01 -5.439293276630183804e-01 7.345746067867665596e-01 -9.141561625203054042e-01 4.887371896759746259e-01 -7.482354678779915003e-02 -1.331716261176248084e+00 1.274050405453783119e+00 1.764086106217656047e-01 1.119077369102713243e-01
7.630816764261917351e-01 1.720314416954726844e-04 -7.144152750639866378e-02 2.840504953102106558e-02 8.591014898006074652e-02 -4.947851267977902007e-02 2.398312849645538147e+00 -1.172657886569093089e+00 3.833274036867004297e-02 -1.321725148157640306e-01 2.814909380703728980e-01 -3.190835881219317716e-01 2.108970449776581546e-01 1.338900828199778015e-01 2.307000016793643304e-01 -4.718572818044622363e-01 4.341703431826400839e-01 -6.851678242664993937e-03 -1.338654642380702198e-01 -2.271110195980255431e-02 1.457953462156246806e-02 1.762323103885239661e-02 1.463789314978172496e-01 3.560555394691941045e-01 -1.046228245269899271e-01 6.689274711096483694e-02 -7.688226709970533701e-01 -5.356203282634997356e-03 8.472496467976779744e-02 -5.059227989329520558e-03 5.716118414840510448e-02 -1.610009892353227445e-01 -1.150862246445811671e-01 -5.440364386290557075e-01 7.328750483090569201e-01 -9.129229544398755891e-01 4.510678478891549381e-01 -1.194586621300342821e-01 -1.374152874721014106e+00 1.299305550031217393e+00 1.474595329067398541e-01 1.028405799645075447e-01
